export default {"artifactVersion":1,"modelId":"baseline-v1","createdAt":"2026-03-31T18:21:58.179469Z","runtimeContract":{"colorSpace":"srgb","internalColorSpace":"linear_srgb","modelOutputSpace":"oklab_residual","baseEngineId":"spectral_ks_v1","maxColors":3,"featureSchemaVersion":1,"featureLayout":["slot0_r","slot0_g","slot0_b","slot0_weight","slot1_r","slot1_g","slot1_b","slot1_weight","slot2_r","slot2_g","slot2_b","slot2_weight","active_count_ratio","mean_r","mean_g","mean_b","mean_luminance","violet_stress","yellow_blue_stress","dark_stress","physical_oklab_l","physical_oklab_a","physical_oklab_b"],"supportsResidualPhysicalInput":true},"trainingSummary":{"syntheticTrain":44885,"syntheticVal":5115,"curatedTrain":3436,"curatedHoldout":495,"curatedTotal":3931,"warmStart":"loaded from checkpoint","curatedFullMeanDeltaE":2.3225,"curatedFullP95DeltaE":7.2365,"curatedFullMaxDeltaE":39.1337,"curatedHoldoutMeanDeltaE":2.5993,"curatedHoldoutP95DeltaE":8.1149,"curatedHoldoutMaxDeltaE":19.3747},"mixingParameters":{"learnedMixerBlend":1.0,"concentrationExponent":1.25,"absorptionPowerMeanExponent":0.94928,"spectralBasisReflectanceBlend":1.0,"spectralJsKsMixBlend":1.0,"derivedVioletMixResidualScale":0.0,"derivedGreenMixResidualScale":0.0,"derivedDarkVioletMixResidualScale":0.0,"derivedVioletKsResidualScale":0.0,"derivedDarkVioletKsResidualScale":0.0,"opponentPairBasisBlend":0.0,"opponentPairBasisLuminanceLift":0.5,"basisCBlueResidual":0.0,"basisCGreenResidual":0.0,"basisCRedResidual":0.0,"basisMBlueResidual":0.0,"basisMGreenResidual":0.0,"basisMRedResidual":0.0,"basisYBlueResidual":0.0,"basisYGreenResidual":0.0,"basisYRedResidual":0.0,"basisRBlueResidual":0.0,"basisRGreenResidual":0.0,"basisRRedResidual":0.0,"basisGBlueResidual":0.0,"basisGGreenResidual":0.0,"basisGRedResidual":0.0,"basisBBlueResidual":0.0,"basisBGreenResidual":0.0,"basisBRedResidual":0.0,"darkChromaticAbsorptionPowerMeanExponent":0.94928,"darkChromaticScatteringEnvelopeBlend":0.952543,"darkChromaticResidualBasisScale":0.063477,"dualSigmoidRegularisation":0.044721,"dualSigmoidSkipResidualThreshold":1e-06,"dualSigmoidImprovementRatio":0.88,"darkChromaticChromaThreshold":0.450517,"darkChromaticLuminanceThreshold":0.33694,"darkChromaticRegularisationScale":0.604976,"darkChromaticDualSigmoidImprovementRatio":0.995,"absorptionBoostFactor":0.208697,"absorptionBoostLuminanceFloor":0.058177,"absorptionBoostLuminanceThreshold":0.349015,"darkAbsorptionBoostFactor":0.000969310005684197,"scatteringChromaticMultiplier":1.004032,"scatteringChromaticLuminanceFloor":0.100807,"scatteringBaseLuminanceScale":9.507084,"scatteringNeutralLuminanceScale":11.989443,"scatteringMin":0.051241,"scatteringMax":10.993616,"scatteringShapeBase":0.201213,"scatteringShapeChromaScale":0.42194,"pigmentStrengthBase":0.645989,"pigmentStrengthLuminanceScale":1.498656,"pigmentStrengthNeutralityScale":0.112572,"pigmentStrengthMin":0.678096,"pigmentStrengthMax":1.70581},"normalization":{"featureMean":[0.380205822852195,0.27425547051310145,0.21519883218779276,0.6607197668778337,0.23381256644193008,0.18174206901393222,0.18984287241585227,0.3159003255817279,0.028588784890732362,0.024203600791199976,0.02356202951248307,0.02337990754052105,0.6658940557248917,0.3234450980919576,0.24278856578188235,0.21708467117053917,0.25808366696355883,0.19570199052452,0.12631629595116337,0.21938476002015617,0.5335679278455842,0.0037228024505604244,0.02273383595007769],"featureStd":[0.371468931714588,0.32798786963855764,0.3013894576564292,0.16541351401818857,0.33171694651040967,0.27978822254863495,0.26907390354745503,0.15239570236785457,0.1385168726273276,0.11961544028258804,0.11873136525911894,0.06932339334220794,0.157688041188722,0.2786189136605139,0.2407896199053138,0.22697827722594838,0.22276750999845957,0.27088514462426994,0.22474461904934992,0.29181990757115206,0.19310390687383067,0.07750230277692291,0.08061898397039283],"targetMean":[0.001658086400921522,-0.00031845021676021624,7.207373903806695e-05],"targetStd":[0.011069552329790481,0.005943664607978785,0.0056403125403730004]},"network":{"architecture":"mlp","activation":"tanh","inputDim":23,"hiddenDims":[32,32],"outputDim":3,"weights":{"w1":[[0.00709733460098505,-0.7057381868362427,0.3708576560020447,0.5621432662010193,-1.3184858560562134,-0.3146434426307678,0.30877381563186646,-0.3359796702861786,0.1065811812877655,-0.14564518630504608,0.35068073868751526,0.1695781797170639,-2.2163028717041016,-0.045266710221767426,-0.30154553055763245,-0.32097214460372925,-0.3398144543170929,-0.3055424094200134,0.3972568213939667,0.013061284087598324,0.19187627732753754,-0.979967474937439,-0.3877112567424774],[0.13097059726715088,0.04924991726875305,-0.5028425455093384,0.22606554627418518,0.23201794922351837,0.10246536135673523,-0.026735693216323853,0.4730778634548187,0.3836696743965149,0.3886564373970032,0.3121686577796936,0.7794557213783264,2.082904815673828,0.05437376722693443,-0.23932889103889465,-0.5065085291862488,0.15638487040996552,0.1306036412715912,0.13981619477272034,-0.3656594753265381,-0.1717434823513031,-0.5305176973342896,0.7866572141647339],[0.7291960120201111,0.6163241863250732,0.12105267494916916,-0.02451394684612751,0.4954465329647064,0.2552739381790161,-0.2886120080947876,-0.08241921663284302,-0.004723123274743557,0.046645939350128174,0.14119315147399902,0.7134317755699158,2.2018203735351562,0.4700419306755066,-0.31483709812164307,0.04437051713466644,0.19285491108894348,0.2680918276309967,0.13784797489643097,0.15320810675621033,-0.13552288711071014,-0.7721800208091736,0.7215300798416138],[-0.21375460922718048,-0.4200674891471863,-0.39609479904174805,-0.1560949683189392,0.2813253402709961,0.41563352942466736,0.552945077419281,-0.16129371523857117,-0.31153491139411926,-0.21522432565689087,-0.5659464001655579,-0.3259720802307129,-2.5157341957092285,-0.08913283795118332,-0.0006887149065732956,-0.7499817609786987,0.20154814422130585,-0.3004830777645111,0.022330010309815407,0.20899401605129242,0.604878306388855,0.43840616941452026,0.8226417303085327],[-0.24694694578647614,-0.6737380027770996,-0.7107813954353333,-0.02062353678047657,-1.1609506607055664,0.07035083323717117,0.578576922416687,-0.5711286067962646,-0.1529073417186737,0.4468114674091339,0.043006204068660736,0.16841429471969604,-3.545042037963867,0.14486241340637207,-0.5404999256134033,-0.5016170740127563,0.032724007964134216,-0.8429399132728577,0.14363807439804077,0.16153988242149353,-0.3752266466617584,-2.176452159881592,-0.15343034267425537],[-0.12337464839220047,-0.146043062210083,0.13844220340251923,0.7690210342407227,0.0915103629231453,-0.03432044759392738,0.10710638761520386,-0.29313305020332336,0.7521679997444153,0.669439971446991,0.37669044733047485,0.7603821754455566,1.6790180206298828,0.14675386250019073,-0.24360297620296478,0.0829453095793724,-0.2840411067008972,0.44165951013565063,-0.007620206102728844,-0.3792755901813507,-0.061003826558589935,-0.37975749373435974,0.6730003952980042],[0.642737090587616,0.6288946270942688,0.04772258549928665,-0.5205568671226501,-0.8548757433891296,0.045704957097768784,0.28366759419441223,-0.031065162271261215,0.30186960101127625,0.4505387544631958,0.7391577363014221,0.5636191368103027,0.8270348310470581,-0.25709110498428345,-0.1839502900838852,0.09790472686290741,0.22237691283226013,0.48047396540641785,0.03119197115302086,0.5478215217590332,-0.5386671423912048,-1.295264720916748,-0.7431479692459106],[-0.35715240240097046,0.3641720116138458,0.1899324655532837,0.4531504213809967,-0.5644637942314148,0.3679297864437103,0.22380629181861877,-0.1468425840139389,-0.2813483476638794,-0.4300573766231537,-0.22533860802650452,-0.5710806846618652,0.5349936485290527,-0.38842788338661194,-0.41782572865486145,0.5301098823547363,-0.308194100856781,0.05312815308570862,0.15780837833881378,0.1407628208398819,0.7560293674468994,0.08635489642620087,0.7046976089477539],[0.36910614371299744,0.7506006956100464,0.0801081657409668,-0.4628485143184662,-0.5421270132064819,0.31595858931541443,0.2896454632282257,-0.06386309862136841,0.3818143606185913,0.9204519391059875,0.05940187722444534,0.2544705867767334,1.0868867635726929,-0.13320113718509674,0.0030394478235393763,0.029818641021847725,0.08009107410907745,0.4904416501522064,0.20443566143512726,0.09499791264533997,-0.8848057389259338,-1.1134296655654907,-0.7298092246055603],[-0.21556811034679413,0.04348038509488106,-0.2459583282470703,0.30524906516075134,-0.3385089635848999,-0.17422504723072052,-0.24851515889167786,-0.18965330719947815,0.5129212737083435,0.352133184671402,0.4320603609085083,0.15008467435836792,-3.0796403884887695,0.1953497976064682,0.033640000969171524,-0.3395203948020935,-0.2945532202720642,-0.13412357866764069,-0.14622700214385986,0.9474260807037354,0.26223763823509216,-1.4019242525100708,-0.9457565546035767],[-0.36496859788894653,-0.21123012900352478,0.037603624165058136,0.47857844829559326,0.2183065414428711,-0.11779268831014633,-0.07293140888214111,-0.13169774413108826,-0.38908979296684265,-0.2152940034866333,-0.3567713797092438,-0.10926363617181778,-2.8322224617004395,0.08178035914897919,0.4749520421028137,-0.24009573459625244,-0.2703987658023834,0.7671645879745483,1.412855863571167,-0.31794869899749756,0.11680646985769272,-0.22052647173404694,1.136054515838623],[-0.5359042286872864,0.42018476128578186,0.23358431458473206,-0.0017272168770432472,0.278536319732666,-0.30395522713661194,-0.35509806871414185,0.1140480786561966,-0.19912967085838318,-0.00643534492701292,-0.22587408125400543,-0.0070092459209263325,2.7102913856506348,-0.484156996011734,0.390657514333725,-0.2934742271900177,0.05046052113175392,-0.13316619396209717,0.039741337299346924,0.050935953855514526,0.7969160079956055,0.8186414241790771,-0.08788353949785233],[-0.49352359771728516,-0.5669240355491638,0.45921555161476135,0.19680283963680267,0.27815163135528564,-0.2523272931575775,-0.17321670055389404,-0.008518228307366371,-0.27408814430236816,-0.08651386201381683,0.05961596965789795,0.07327227294445038,-2.7006449699401855,0.12876658141613007,-0.0013113177847117186,-0.22869092226028442,0.4825327396392822,-0.7634085416793823,-0.3561760187149048,0.034764599055051804,0.1627357453107834,-0.36407196521759033,-1.476990818977356],[-0.26221272349357605,0.21554461121559143,-1.5583688020706177,0.18341584503650665,-0.28030139207839966,-0.09083352237939835,-0.24050942063331604,-0.10633373260498047,0.3767838180065155,0.2807844281196594,0.7217065691947937,0.9220612049102783,0.8031617999076843,-0.382095068693161,0.4033307135105133,-0.2130882441997528,-0.05471828207373619,-0.23518076539039612,-1.440927505493164,0.7030020952224731,-0.09114203602075577,1.394662618637085,0.23851636052131653],[0.5307395458221436,-0.015909908339381218,0.6568771600723267,0.07058073580265045,-0.3478921055793762,-0.5647093653678894,0.09794396162033081,-0.012618184089660645,0.5558274984359741,0.35348957777023315,-0.10288812220096588,-0.3856132924556732,-2.5234479904174805,0.2539898455142975,-0.2455892115831375,-0.2331593781709671,0.39343637228012085,0.3366355299949646,-0.22275269031524658,-0.5210469365119934,0.3755491077899933,-0.21009251475334167,-0.6624488830566406],[-0.6436852216720581,-0.054095979779958725,0.6973578929901123,-0.12695521116256714,0.33012932538986206,-0.28195706009864807,-0.04409300163388252,-0.49298739433288574,0.3596506118774414,0.3902844786643982,0.046771202236413956,0.20089150965213776,0.37079405784606934,0.1060800701379776,-0.2164679914712906,0.12119148671627045,0.020834101364016533,0.6111431121826172,-0.02758173458278179,-0.07181929051876068,0.5153773427009583,-0.9254969358444214,-1.0286580324172974],[0.08935423195362091,0.41631194949150085,0.06969602406024933,0.3452405035495758,0.23264114558696747,0.11959631741046906,-0.04854749143123627,0.768893301486969,-0.2643386721611023,-0.6176629662513733,0.42360934615135193,-0.345772385597229,3.012305736541748,0.5311297178268433,-0.1500898152589798,-0.633589506149292,-0.17930468916893005,-0.1637990027666092,1.0914968252182007,0.09346196055412292,0.05856526270508766,-0.8408665657043457,-1.739101767539978],[0.12189988791942596,0.08103179186582565,0.012006158009171486,0.03403223305940628,-0.009090948849916458,0.06321758031845093,0.1571541279554367,0.2252621054649353,0.2399817854166031,0.36928591132164,0.5222201943397522,0.8922329545021057,1.0554252862930298,0.3491588830947876,-0.07546883076429367,-0.09649912267923355,0.2790471315383911,-0.7197455763816833,-0.25501057505607605,-0.45548418164253235,-0.509225606918335,-0.6805939078330994,0.5969132781028748],[-0.07113418728113174,-0.3927688002586365,0.3908664584159851,0.3938247859477997,-0.09231880307197571,0.31116411089897156,0.17888016998767853,-0.25614598393440247,0.027670783922076225,-0.24742157757282257,-0.2080359309911728,-0.02437891811132431,-2.692575454711914,0.7907769680023193,-0.6148656010627747,-0.06296471506357193,-0.4123094081878662,0.16449780762195587,0.28015217185020447,-0.48452886939048767,0.22482915222644806,-0.6439110040664673,-1.220911979675293],[-0.7098802924156189,-0.03958403319120407,0.5168070197105408,-0.092996746301651,0.0006517178844660521,-0.2910624146461487,0.7818219065666199,-0.049610111862421036,-0.2685576379299164,0.42095839977264404,-0.023928675800561905,0.31283390522003174,0.9752617478370667,-0.2558068335056305,-0.06916185468435287,0.6581839323043823,0.38771888613700867,-0.1134784072637558,0.09216814488172531,0.2885679006576538,-0.30487728118896484,0.41365206241607666,0.37220314145088196],[0.46233436465263367,-0.39610421657562256,-1.0839128494262695,-0.8186858296394348,-0.713337242603302,-0.41545528173446655,-0.17730598151683807,0.66754150390625,0.4418208599090576,-0.21346905827522278,0.2060246616601944,0.036566440016031265,1.7898625135421753,0.03758188337087631,0.32498523592948914,-0.3779468238353729,0.37986326217651367,-0.8862395882606506,0.13466913998126984,0.49496448040008545,1.0082015991210938,-0.2696506977081299,-0.778053879737854],[0.7081002593040466,0.6340839862823486,-0.058743078261613846,-0.2565564513206482,-0.1752648651599884,-0.1781342327594757,0.2748933732509613,0.24672019481658936,0.20646825432777405,-0.09661481529474258,0.3700626790523529,0.2289086878299713,1.0935591459274292,-0.29832878708839417,-0.144728884100914,-0.4717356860637665,-0.41313815116882324,0.4454476535320282,0.5045974850654602,0.6295713782310486,-0.112621009349823,-1.2011407613754272,-0.057819902896881104],[1.022331953048706,-0.015678444877266884,-0.6511247754096985,0.014514551497995853,-0.6193677186965942,0.1543402224779129,-0.40253567695617676,0.022714737802743912,0.5469428896903992,0.251144677400589,0.4225977957248688,0.1766577959060669,3.0823378562927246,0.3473140001296997,-0.5441870093345642,-0.7752907872200012,0.10598913580179214,0.2446141391992569,0.055125828832387924,-0.40226614475250244,0.7098614573478699,0.2839742600917816,0.3341841995716095],[1.037742257118225,0.4534660279750824,0.16514255106449127,0.042711421847343445,0.479239284992218,-0.23823514580726624,0.14722004532814026,-0.21060515940189362,-0.08117109537124634,-1.1623119115829468,-0.6302726864814758,-1.0289866924285889,-2.3262226581573486,0.6008832454681396,-0.19937816262245178,0.20536001026630402,-0.0369594432413578,0.06370396912097931,-0.6736021637916565,-0.05643618479371071,-0.06084749102592468,0.7811421751976013,0.40436139702796936],[-0.021783487871289253,0.23269695043563843,-0.24191425740718842,-0.12751635909080505,-0.05044179782271385,0.07366655766963959,-0.2632584571838379,-0.3119148910045624,0.34668847918510437,0.39998847246170044,0.3173394501209259,0.1997828632593155,1.6621991395950317,0.2954793870449066,-0.3073151111602783,-0.20465587079524994,-0.039211422204971313,0.07726580649614334,-1.6983628273010254,-0.07968264073133469,-0.22029919922351837,-0.6981064081192017,-0.11995931714773178],[-0.52602219581604,0.6626964211463928,0.5151948928833008,-0.2809780240058899,-0.5819900035858154,-1.5403060913085938,-0.49156084656715393,0.022762687876820564,-0.03219474479556084,0.29448777437210083,0.7942191958427429,0.04316215589642525,-1.0827707052230835,-0.12114954739809036,0.5397322773933411,-0.2110973298549652,0.1035897508263588,0.22931286692619324,-0.17839248478412628,-0.33871039748191833,-0.43455037474632263,-1.018994688987732,1.0486637353897095],[-0.23199355602264404,-0.4511043429374695,0.24194394052028656,-0.08555061370134354,0.2017059624195099,0.003832960268482566,-0.27497127652168274,0.06398884952068329,0.4364333748817444,0.2095533162355423,-0.5049389600753784,0.2612287700176239,-2.575162649154663,-0.20457759499549866,0.13040119409561157,0.22759146988391876,0.10689577460289001,-0.8402561545372009,0.2241864800453186,0.19500309228897095,-0.2651600241661072,0.8351334929466248,-1.0990259647369385],[0.13504934310913086,0.6402987837791443,-0.3022421896457672,0.027457084506750107,-0.3311198949813843,0.13326381146907806,0.3087659180164337,-0.28506967425346375,0.009947358630597591,1.1006722450256348,1.3318016529083252,0.5265910029411316,0.17951013147830963,-0.547723650932312,0.19881154596805573,-0.32439759373664856,-0.23965992033481598,0.2519994080066681,-0.35594937205314636,-1.0623760223388672,0.2689729630947113,0.873470664024353,0.5241014361381531],[-0.14595529437065125,-0.1817716807126999,0.18213114142417908,-0.7810527682304382,-0.006018797867000103,-0.05834873020648956,0.17787224054336548,0.21774564683437347,0.49775707721710205,-0.2443002611398697,0.24595625698566437,0.13491584360599518,1.367142677307129,0.10054811090230942,0.6239991784095764,-0.20908892154693604,-0.2454873025417328,0.23457597196102142,-0.3471890985965729,-0.18289925158023834,0.4094042181968689,-0.9529467225074768,-0.49399858713150024],[-0.08930516242980957,-0.7804265022277832,-0.7055742740631104,0.12835709750652313,0.4003082811832428,-0.05267162248492241,-0.9134473204612732,0.14466236531734467,1.0454024076461792,1.5735827684402466,1.0311651229858398,1.1627931594848633,0.26395317912101746,0.271034300327301,0.4706486165523529,0.20150858163833618,0.11143389344215393,0.03173467516899109,-0.5273836851119995,0.49737876653671265,0.09595399349927902,0.16988320648670197,0.7090804576873779],[0.13559097051620483,0.09322826564311981,0.31308016180992126,-0.5137346386909485,-0.40900692343711853,-1.8105461597442627,-0.33202388882637024,-0.4588826596736908,-0.2014273852109909,0.22976595163345337,0.8160053491592407,0.13322439789772034,0.23731042444705963,-0.09936395287513733,0.021772829815745354,-0.2476210594177246,-0.47715604305267334,1.1329542398452759,-0.5262687802314758,1.586264729499817,-0.018966645002365112,-0.0023035211488604546,0.024876512587070465],[0.08605530112981796,-0.12184959650039673,-0.4452073276042938,-0.13872794806957245,-0.09522674232721329,-0.2939244508743286,-0.6092760562896729,-0.199062317609787,-0.24121248722076416,-1.3542464971542358,-1.0621495246887207,-0.9648329019546509,0.42084914445877075,-0.11338429898023605,0.16534723341464996,-0.5447513461112976,-0.4087296426296234,-0.3620554506778717,-0.07078482955694199,-0.10271980613470078,0.06431054323911667,0.8034787774085999,1.3171886205673218]],"b1":[0.031848568469285965,-0.4439231753349304,-0.2906018793582916,0.3325580954551697,0.027442140504717827,-0.25038841366767883,-0.08645935356616974,0.26547351479530334,-0.24776190519332886,-0.014919152483344078,-0.014263929799199104,0.30134066939353943,-0.17481425404548645,0.16110141575336456,-0.14468613266944885,0.32869717478752136,0.41717103123664856,-0.32012659311294556,-0.2352561056613922,0.292708158493042,0.13762778043746948,-0.16744273900985718,-0.1646866500377655,0.18798859417438507,-0.2951118052005768,0.02679961733520031,-0.14169619977474213,-0.3768516480922699,0.15210102498531342,-0.7823167443275452,0.18324525654315948,0.5051383376121521],"w2":[[0.4859749376773834,0.17195002734661102,-0.6245465278625488,-0.8097051978111267,0.9929143190383911,-0.5141920447349548,-0.391845166683197,-0.6166738271713257,0.08115037530660629,0.2690846621990204,1.1803550720214844,0.11380060017108917,0.20880647003650665,-0.457196444272995,0.3980311453342438,0.03340841829776764,-0.34512439370155334,1.3255763053894043,0.6217740774154663,-0.2588173449039459,-0.5236632823944092,0.36155959963798523,0.1157400980591774,-0.1042407751083374,1.1969577074050903,-0.14566825330257416,0.5484252572059631,0.37203213572502136,0.4984983503818512,-0.04329806566238403,0.34198543429374695,-0.36322468519210815],[-0.8972784876823425,0.8196702599525452,0.23268724977970123,-0.5385063290596008,-0.516909122467041,0.608963668346405,-0.3640395700931549,-0.4427097737789154,-0.18831554055213928,0.5149050354957581,0.15564924478530884,1.1399964094161987,0.3460007309913635,0.2122000902891159,0.37358200550079346,0.7400474548339844,0.1716274917125702,0.6022235751152039,-0.3431759476661682,0.12314455211162567,0.306893527507782,-0.4684556722640991,-0.02180405519902706,-0.28740042448043823,0.8148696422576904,0.311996728181839,0.37932851910591125,0.799655556678772,0.8166338801383972,0.9420133829116821,0.653815507888794,-0.3561789393424988],[0.5664684772491455,-0.23950189352035522,-0.5521765947341919,0.6501545310020447,1.3474009037017822,0.026222828775644302,0.13264600932598114,0.20447313785552979,0.04950597509741783,0.20828205347061157,-0.33290523290634155,0.3846028745174408,0.23100842535495758,-0.6340000629425049,-0.2795828580856323,-0.2013683021068573,0.07101615518331528,-0.16930048167705536,-0.09837349504232407,-0.2420237809419632,0.03849010542035103,-0.10817030072212219,-0.2071443796157837,-0.7006719708442688,-1.3410875797271729,-0.3988320827484131,0.27602747082710266,-0.017592325806617737,-0.3293299078941345,-1.4116815328598022,-0.14037585258483887,0.49866706132888794],[-0.21621936559677124,0.02122204191982746,0.5791715383529663,-0.46987348794937134,-0.24775251746177673,1.22816801071167,0.5480774641036987,0.4462831914424896,2.173906087875366,1.501656174659729,0.9137760400772095,-1.3083546161651611,0.4653141498565674,0.20820777118206024,0.9780072569847107,0.2893315553665161,-0.6686902642250061,0.05407065898180008,-0.4515998959541321,-0.0022702051792293787,-0.25559714436531067,0.8792471885681152,-0.06290847808122635,-0.009679760783910751,-0.09933748841285706,0.024338748306035995,-0.8239778280258179,0.4276431202888489,-0.735306978225708,-0.12009263038635254,0.04002733528614044,-0.7659784555435181],[0.054954979568719864,0.45145317912101746,-0.43502694368362427,0.881246030330658,0.00902076717466116,-0.5510921478271484,0.36026838421821594,-0.7263464331626892,0.6360855102539062,-0.06973975151777267,-0.5705140233039856,-1.041488766670227,-0.564808189868927,0.42952293157577515,0.3239656686782837,-0.17926275730133057,-0.38017091155052185,0.4859922230243683,-0.3102920353412628,-0.2715025842189789,-0.45100411772727966,-0.025458337739109993,0.235307976603508,-0.34834733605384827,-0.8244584202766418,-0.6102902889251709,-0.09656054526567459,0.15122894942760468,-0.2949633002281189,0.8146714568138123,-1.2393416166305542,-0.2592630386352539],[0.7448492646217346,0.6202169060707092,1.6482247114181519,-0.17220105230808258,1.998733401298523,0.5485197305679321,0.21962760388851166,0.756415069103241,-0.16326919198036194,0.663119375705719,0.5481294393539429,-0.11599914729595184,-0.08419539779424667,-1.4781516790390015,-0.09459825605154037,-0.07967783510684967,0.3156745135784149,-0.6791797280311584,1.0568430423736572,0.3634125888347626,-0.15360495448112488,0.7627800703048706,0.4284188747406006,-1.3807810544967651,0.18963320553302765,0.02345840260386467,-0.5166218876838684,-0.5677028298377991,0.2529137134552002,0.46143391728401184,0.12036573141813278,-0.12520849704742432],[0.24676573276519775,0.05844233185052872,0.6568384170532227,0.5926594138145447,0.30493760108947754,0.33857032656669617,0.7899225354194641,0.417864590883255,-0.5755903720855713,0.4895930290222168,0.5554394125938416,0.4662720561027527,1.0027036666870117,0.6291531920433044,0.30147188901901245,0.29491516947746277,-0.1595281958580017,-0.23824162781238556,-0.1663316935300827,-0.6044813394546509,-0.9226945042610168,-0.9055812954902649,-0.6683957576751709,-0.05077791586518288,-0.2470097690820694,0.01267270091921091,-0.22141365706920624,0.7735680341720581,0.27228879928588867,0.2961612045764923,0.06263268738985062,0.37990662455558777],[0.6577102541923523,0.27229204773902893,0.26724177598953247,-0.3521910309791565,-0.27347731590270996,-0.34416449069976807,-0.025426674634218216,-0.8910273313522339,0.09347931295633316,-0.07576366513967514,0.8613035082817078,0.2937355041503906,-0.3333880305290222,0.10706814378499985,0.3992173671722412,-0.15112565457820892,0.5408851504325867,-0.34639206528663635,-0.7582823038101196,0.08518290519714355,0.40665823221206665,-0.8811338543891907,0.26432695984840393,0.1874447613954544,0.23789668083190918,-0.10588894784450531,-0.5142942070960999,0.5286934971809387,-0.10432875156402588,-0.7748309373855591,0.0990658551454544,-0.07751796394586563],[0.743573784828186,0.77671217918396,-0.4466632604598999,0.3543803095817566,-0.010520209558308125,0.5478513836860657,-0.15954235196113586,0.36124494671821594,-0.6801041960716248,-0.06371772289276123,0.6022828221321106,0.08911477774381638,-0.7515420913696289,-0.16070201992988586,0.10428176075220108,-0.32938289642333984,-0.5016357898712158,0.18820589780807495,-0.2613266408443451,0.975872814655304,-0.6786134839057922,-0.4955718219280243,0.06622232496738434,-0.5502713918685913,-0.5278668999671936,0.1804705262184143,0.24541796743869781,0.3198488652706146,-0.28435397148132324,-0.16852881014347076,0.03799741715192795,0.2810772955417633],[-0.6962670087814331,0.1658557802438736,-0.536406934261322,0.445664644241333,-0.14464911818504333,0.14634224772453308,-0.01042129471898079,-0.42905768752098083,-0.40568509697914124,0.3089064657688141,-0.24164611101150513,-0.4258235692977905,0.34499144554138184,-0.02363361045718193,-0.20914223790168762,-0.28465500473976135,0.2708374559879303,0.2899557650089264,0.17152009904384613,-0.3531215786933899,-0.4505593776702881,-0.1819436252117157,-0.42832690477371216,0.6183302402496338,0.410362184047699,0.43055814504623413,-0.00994187407195568,-0.7042937874794006,-0.07502204924821854,1.2351696491241455,-1.4073647260665894,0.7239269614219666],[-0.41674965620040894,0.2957918345928192,0.09509452432394028,0.2738035023212433,-0.6174410581588745,0.04335639253258705,-0.1601426750421524,-0.1405085027217865,-0.4702555537223816,-0.5939163565635681,-0.4066046476364136,0.5161259174346924,0.9576080441474915,-0.19151881337165833,-0.35269978642463684,-0.47422558069229126,-0.07055354863405228,-1.0759755373001099,-0.6314290165901184,0.3397330641746521,0.602408230304718,0.15906314551830292,0.20599141716957092,0.5068613290786743,0.12829729914665222,0.05417574569582939,0.7607575058937073,0.1350688934326172,-0.008718275465071201,0.157572403550148,-0.1999950110912323,0.13652783632278442],[1.243697166442871,-0.4325772225856781,0.2634331285953522,-0.37183865904808044,1.9844411611557007,-0.02682185359299183,0.9044460654258728,0.3180885910987854,0.5959073901176453,0.008548474870622158,0.2777350842952728,0.2187987118959427,0.42492127418518066,-0.3579959273338318,0.3594314455986023,-0.02653055638074875,-0.6822457909584045,0.15819697082042694,-0.32491758465766907,-0.32288438081741333,0.19308091700077057,0.9802066683769226,1.1523525714874268,-0.05206546559929848,-0.7194510102272034,-0.13919509947299957,-0.008977294899523258,0.7931843400001526,-0.20606912672519684,-0.9443211555480957,0.6069451570510864,-1.1067276000976562],[0.3844551742076874,-0.546743631362915,-0.15026552975177765,0.4835827946662903,0.08668255060911179,-0.12464910000562668,1.0236097574234009,-0.3808761239051819,-0.3977641463279724,-0.8228808641433716,-0.6654171347618103,0.5431801676750183,-0.6631829738616943,0.10167325288057327,0.32311251759529114,1.1077547073364258,0.3725612759590149,-0.3656764030456543,0.4916769862174988,0.18213261663913727,-0.09870298951864243,-0.9270428419113159,-0.5868927836418152,-0.5503769516944885,0.10895530134439468,0.7508556842803955,0.37794557213783264,-0.43889322876930237,0.5925560593605042,0.03401710465550423,0.18786555528640747,0.5557564496994019],[-0.7684271931648254,0.2002774327993393,0.7212250828742981,-0.24753552675247192,-1.1104686260223389,0.1222793385386467,-0.7543916702270508,-0.48148486018180847,-0.4758889079093933,0.19369462132453918,-1.2480504512786865,-0.18313466012477875,-0.17591562867164612,-0.42497265338897705,0.2972891628742218,0.6750215888023376,-0.4543777108192444,-0.10617242753505707,-0.04396115615963936,-1.172778844833374,-0.32947593927383423,-0.566110372543335,-0.10951536893844604,-0.40640789270401,-0.9075405597686768,0.29351046681404114,-0.11825520545244217,0.5541229248046875,-0.32800450921058655,0.5880708694458008,0.025753993541002274,-0.024170488119125366],[0.040175773203372955,-0.8816871047019958,-0.12502817809581757,-0.12259509414434433,0.0657750815153122,-0.5086451172828674,-0.13857845962047577,0.023509252816438675,0.42901644110679626,-0.35325875878334045,1.1560276746749878,0.6610949635505676,-1.0190235376358032,-1.2517286539077759,-0.017920801416039467,0.12560050189495087,-0.4871446490287781,-0.8916280269622803,-0.035902898758649826,0.20493124425411224,-0.1460815966129303,-0.25587233901023865,-0.4994874596595764,0.13286924362182617,-0.31467902660369873,0.568812906742096,-0.7833513021469116,-0.5695039629936218,-0.5448943376541138,-0.0890323743224144,-1.221323013305664,-0.17063592374324799],[-0.34107860922813416,-0.6869975328445435,-0.8816702961921692,-0.6526060104370117,-0.41577795147895813,0.4711621403694153,0.18855684995651245,0.24897576868534088,-0.05934329703450203,0.8567132353782654,0.2354455441236496,-0.5188791155815125,-0.3810591399669647,0.36171799898147583,0.367127388715744,-0.041683875024318695,-0.6493701338768005,0.587518036365509,0.3403538763523102,-0.21566937863826752,-0.2968602180480957,0.2085532248020172,0.11700531840324402,0.608807384967804,0.4229641556739807,-0.5441820025444031,0.5265872478485107,0.1485043317079544,0.2721261978149414,0.5109848976135254,0.37766924500465393,-1.0210312604904175],[0.33945924043655396,-0.23338428139686584,1.109517216682434,1.0377668142318726,-0.9947072267532349,0.12918473780155182,-0.1625322550535202,0.5651770830154419,-0.2920568287372589,-0.6293794512748718,0.4620252847671509,0.2514342963695526,-0.1689695417881012,-0.5800249576568604,0.5474616885185242,0.13674898445606232,0.16108275949954987,-0.020025450736284256,0.44246914982795715,-0.5170801877975464,0.3854944109916687,-0.14725938439369202,1.0984575748443604,-0.10233450680971146,-0.010338095016777515,0.5513016581535339,-0.37392672896385193,0.12857139110565186,-0.3833406865596771,0.8282549381256104,-0.047972433269023895,0.06673385202884674],[-0.34456297755241394,-0.37887123227119446,-0.7972091436386108,0.5053521394729614,-0.5683931708335876,0.032668907195329666,-0.324719101190567,0.7011682391166687,0.7903850674629211,0.029238685965538025,0.14969849586486816,0.34328699111938477,-0.26425880193710327,0.05791196599602699,0.005124050658196211,1.1883827447891235,-1.5496248006820679,0.29608508944511414,-0.19931665062904358,-0.16712483763694763,0.22226713597774506,-0.9065947532653809,-0.17866124212741852,0.508563756942749,1.1584949493408203,-0.1272599697113037,-0.8896487355232239,0.4210948050022125,-0.20385883748531342,0.350153386592865,-0.3089069724082947,-0.20313912630081177],[0.02245336025953293,-0.11779427528381348,0.0035845045931637287,0.31669262051582336,-0.03334629908204079,-0.1488933116197586,-0.09249725937843323,-0.09486860036849976,-0.3932579755783081,-1.379332423210144,-0.014210479333996773,-0.4214629530906677,0.8252347707748413,0.36579081416130066,0.5464465022087097,-0.5034328699111938,-0.32597115635871887,0.31682896614074707,-0.7552211284637451,-0.5284757614135742,0.36073121428489685,-0.7552067637443542,0.14476650953292847,1.1280409097671509,0.1788400262594223,0.18472926318645477,1.3260610103607178,-0.03643541410565376,-0.3148574233055115,0.31316640973091125,0.03411838412284851,0.3548590838909149],[-0.6176682710647583,1.0737375020980835,0.305926650762558,-0.47675594687461853,-0.2507428824901581,-0.33895647525787354,0.049883849918842316,0.13427232205867767,0.02018885873258114,0.11780315637588501,0.15044614672660828,-0.22916507720947266,0.11921455711126328,-0.3126838207244873,-0.30556443333625793,0.16816553473472595,-0.452334463596344,0.3879745602607727,-0.47991523146629333,-0.07401817291975021,-0.6262575387954712,0.3162272274494171,-0.4613220691680908,0.4288451373577118,0.6734061241149902,0.06328509747982025,-0.0667102113366127,0.7902722954750061,-0.5602601766586304,0.23942014575004578,-0.0383441187441349,0.07625485956668854],[0.21120722591876984,-0.22935067117214203,-0.13764610886573792,0.45297378301620483,-0.10269762575626373,-0.5069286823272705,0.5071563124656677,0.21222612261772156,-0.6322353482246399,-0.7300000190734863,0.8856557607650757,0.4067031145095825,-0.4318101406097412,-0.47247979044914246,-0.4918375313282013,0.2971222698688507,0.9072021842002869,0.2082500457763672,-0.546928882598877,0.7967563271522522,0.3311973810195923,-0.13640154898166656,0.5602849721908569,-0.22081461548805237,0.386466383934021,0.051512155681848526,-0.2438540905714035,-0.9696321487426758,-0.22983518242835999,0.576175332069397,0.10552233457565308,0.7741092443466187],[0.27262529730796814,-0.07339400798082352,-0.5843901038169861,1.423763394355774,0.2464611977338791,0.315335750579834,0.30606698989868164,0.3945697546005249,0.6272162199020386,-0.05556521564722061,0.22368502616882324,-1.0308109521865845,-0.29080629348754883,-0.2827479839324951,-0.18380655348300934,-0.18924590945243835,-0.37665772438049316,-0.11597543954849243,0.3217383325099945,0.8356198668479919,-0.4665886461734772,0.3739874064922333,-0.8785176277160645,0.18186601996421814,-0.8750364780426025,-0.6854543685913086,-0.39536726474761963,0.2417573481798172,0.5380614399909973,-2.4330453872680664,-0.9826522469520569,0.3509109914302826],[-0.06028101220726967,-0.5704017877578735,-0.8273547291755676,1.1537964344024658,0.8777341842651367,-0.36217960715293884,1.0411148071289062,0.5975427627563477,-1.1293582916259766,0.04285632446408272,-0.14027716219425201,0.18579232692718506,0.09781141579151154,-1.0142951011657715,0.40068313479423523,0.37645870447158813,0.9922088384628296,0.2675569951534271,0.49895113706588745,0.4845440089702606,0.32351186871528625,-1.0192162990570068,0.10110685229301453,-0.27835625410079956,-0.104462169110775,-0.10246612131595612,-0.974416971206665,-0.4601825773715973,0.24740451574325562,-0.6135358810424805,-0.18483836948871613,1.0044747591018677],[1.0431852340698242,-0.3261205852031708,-0.45798560976982117,-0.347036749124527,1.0713615417480469,-0.6517325043678284,0.2293490320444107,0.8518913388252258,-0.9370454549789429,0.5185320377349854,-0.16158434748649597,-0.44698458909988403,0.11889619380235672,0.005404937546700239,0.6120787858963013,-0.8570930361747742,0.7192453145980835,0.20528800785541534,-0.5200930237770081,-0.48430007696151733,-0.555145263671875,0.06060517951846123,-0.024788517504930496,-0.17537713050842285,0.2053515762090683,-1.0658841133117676,0.7008253335952759,0.2556352913379669,0.11277413368225098,-0.789726197719574,0.4304320514202118,0.36069533228874207],[0.13296347856521606,-0.06316003948450089,0.005486938636749983,0.04781428351998329,0.7663471102714539,0.755277693271637,0.5918278694152832,0.4118814766407013,0.17371536791324615,-0.32719483971595764,-1.1900544166564941,-0.12795937061309814,-0.426159530878067,1.2110627889633179,-0.06569572538137436,-0.4152013063430786,-0.5670871138572693,-1.4108384847640991,-0.7544686198234558,0.6421289443969727,0.3861229121685028,1.1383068561553955,-0.3224283754825592,-0.05041021481156349,-1.689540982246399,0.02281283214688301,-0.2029878944158554,-0.5215604901313782,-0.28218358755111694,-0.6928761601448059,0.1558377891778946,-0.37520530819892883],[-0.000826045114081353,-0.940714955329895,-0.44712576270103455,-0.0002412871690467,1.0976957082748413,0.11399035900831223,0.0881502628326416,-0.21506448090076447,1.0971782207489014,0.3624080419540405,-0.33937880396842957,-0.6381966471672058,0.3941037654876709,0.4508412778377533,-0.580196738243103,-0.27747493982315063,-0.3380906879901886,0.5199553370475769,0.05365990847349167,-0.3852376639842987,-0.20515228807926178,0.6860896944999695,0.37332895398139954,-0.1911444514989853,-0.0555192269384861,0.44127604365348816,-0.39744457602500916,-0.6997548937797546,-0.7201727628707886,0.13274581730365753,-0.8210222721099854,0.28394946455955505],[0.8026551604270935,-0.34917813539505005,0.23298849165439606,-1.2972066402435303,0.14027684926986694,-0.05204633250832558,-0.22976522147655487,-0.8261892795562744,-0.3060299754142761,0.7954645156860352,-1.1772624254226685,0.28047728538513184,-0.2910352647304535,0.4583773612976074,0.5508175492286682,0.22899948060512543,0.3009069561958313,-0.3528604507446289,-0.6511958837509155,0.289470911026001,-0.30488401651382446,0.36869069933891296,-0.515362560749054,-0.3291082978248596,-0.1984127312898636,-0.4916762411594391,0.11354655027389526,0.6116743683815002,-0.16018147766590118,0.39729321002960205,0.205376997590065,-0.5706157684326172],[-0.0017038020305335522,0.025563525035977364,1.136734127998352,-0.45015445351600647,-0.17178547382354736,0.3759133815765381,-0.1232844889163971,0.5011960864067078,-0.14967785775661469,-0.2168760448694229,0.07054930925369263,0.6830275058746338,-0.05841353163123131,0.3127877414226532,-0.027905568480491638,0.03287347033619881,1.1243761777877808,-1.272067666053772,-0.29103484749794006,-0.44566476345062256,0.2292962372303009,0.2736406922340393,0.7084205150604248,-0.051477979868650436,-0.6183691024780273,0.23595555126667023,-1.1685959100723267,0.7017920017242432,-0.9253032207489014,0.430652379989624,-0.1063046082854271,0.22063371539115906],[-0.2898053228855133,-0.11099772900342941,0.5740019083023071,-0.06733023375272751,-0.2234155833721161,0.3039478659629822,-0.13349813222885132,-0.26528188586235046,-0.13484744727611542,0.9518632292747498,-0.6792773008346558,0.45564913749694824,0.01766444928944111,0.37993714213371277,0.08861145377159119,0.3035796582698822,-0.020926272496581078,-0.3265705704689026,-0.5348991751670837,0.44526225328445435,-0.045097026973962784,0.04914166033267975,-0.5632994174957275,-0.6808722019195557,-0.07590463757514954,-0.49314427375793457,0.7119714021682739,0.6229957342147827,1.4602757692337036,-0.07102052122354507,-0.640343964099884,-0.018521904945373535],[0.44271689653396606,-0.3432910740375519,0.1636243760585785,0.11058241873979568,0.8882626891136169,0.15686210989952087,-0.43945276737213135,-0.5186562538146973,0.9438730478286743,0.3265396058559418,-0.23979730904102325,-0.2816999852657318,1.166434645652771,0.7813534736633301,-0.5614445209503174,-0.4456831216812134,-0.6132736802101135,-0.34943047165870667,-0.25740981101989746,0.10093648731708527,0.04881753399968147,0.41221851110458374,-0.6153520941734314,0.25489604473114014,0.10997482389211655,0.21508382260799408,-0.10931157320737839,-0.29589128494262695,-0.013062319718301296,-0.28941383957862854,-0.876117467880249,-0.010001279413700104],[-0.6926417946815491,0.7777951955795288,-0.18976162374019623,0.055577293038368225,-0.47201138734817505,0.21197430789470673,-0.10111209750175476,-1.1753984689712524,0.36474135518074036,-0.06568179279565811,-0.28431740403175354,-0.4824664294719696,0.24103552103042603,0.37706655263900757,-0.0443972609937191,-0.7642189264297485,-0.0940057709813118,-0.0837288424372673,-0.7138314247131348,0.5971277356147766,0.6851351261138916,-0.46354779601097107,0.7078942060470581,-0.5831159949302673,0.5072431564331055,-0.5780193209648132,0.4718917906284332,0.7008251547813416,0.5819721817970276,0.31702306866645813,-0.5821599960327148,-0.1598852425813675],[-0.25502896308898926,-0.43903112411499023,-0.5940903425216675,0.4298512637615204,-0.7208279967308044,-0.57613605260849,0.16983622312545776,1.2440648078918457,-0.6061506271362305,-0.2900959253311157,0.48730599880218506,0.2438625544309616,-0.3811498284339905,0.47230520844459534,0.021957553923130035,0.3007773756980896,0.8419674038887024,0.27974236011505127,-0.003258326556533575,0.36820417642593384,0.22839009761810303,-0.32403525710105896,0.13780304789543152,-0.3230639100074768,0.09475825726985931,0.4230721592903137,-0.8063883185386658,-0.7348628640174866,0.6780204176902771,0.9107498526573181,-0.3126492500305176,0.3834361135959625]],"b2":[-0.37087923288345337,0.2330836057662964,0.5700491666793823,-0.1080707237124443,-0.2590085566043854,-0.19827499985694885,0.13600414991378784,0.29240360856056213,-0.024785464629530907,0.02291855961084366,0.24149830639362335,0.22227543592453003,0.437290757894516,-0.42834970355033875,0.07295800745487213,-0.7337846755981445,-0.4068763256072998,-0.376505970954895,-0.03157304972410202,-0.200113907456398,0.2777463495731354,0.3830264210700989,-0.26293808221817017,0.3632301390171051,-0.5430376529693604,-0.35888051986694336,-0.4963194727897644,0.17256039381027222,-0.19185590744018555,-0.1945056915283203,0.15659545361995697,0.23420760035514832],"w3":[[-2.2195446491241455,-1.9467095136642456,-0.20347222685813904,0.7555860280990601,-2.066194772720337,0.9486865997314453,-1.9878517389297485,1.8436803817749023,-0.9246031641960144,2.5905063152313232,0.0845813900232315,-2.354898452758789,-2.0296804904937744,1.4539352655410767,2.293330430984497,-0.46525225043296814,-1.4290778636932373,0.7859095931053162,-0.9192322492599487,0.9216488003730774,-0.34379053115844727,2.0808262825012207,-3.3970298767089844,-1.8110147714614868,1.078352451324463,2.3062903881073,1.1468453407287598,-1.1402174234390259,-0.5542460680007935,1.4503623247146606,-1.7490742206573486,-1.363545298576355],[1.1947828531265259,0.20081882178783417,-2.394685983657837,-1.501278042793274,0.2022634595632553,-2.9499905109405518,-0.3895922601222992,-1.2580313682556152,-0.29733806848526,0.017038626596331596,-1.888145089149475,0.1346406489610672,0.8673949241638184,-2.350040912628174,0.120052270591259,1.532019019126892,1.3351696729660034,0.8667926788330078,-2.5573296546936035,-1.158150315284729,1.5165472030639648,0.13962610065937042,1.8562262058258057,-1.3222393989562988,-0.9644151329994202,0.18106846511363983,0.850816547870636,-1.4323534965515137,-2.1490933895111084,-0.7747610211372375,0.9414172768592834,1.4562935829162598],[-1.117055892944336,0.552334189414978,2.439643621444702,1.9185562133789062,-0.8626219630241394,1.105936884880066,0.35468947887420654,-1.1004962921142578,-1.5883411169052124,-0.5090056657791138,1.840108036994934,-0.5621883273124695,-1.6983284950256348,0.7339059114456177,1.1325407028198242,-2.2705652713775635,-1.5677376985549927,-0.9736984372138977,-0.264117956161499,-2.6895663738250732,-2.1008121967315674,-1.1811593770980835,-2.104269504547119,-1.6846400499343872,-1.5335016250610352,0.9891279339790344,-1.2668178081512451,1.8596667051315308,0.1504196971654892,1.8816769123077393,1.1525613069534302,-1.207926869392395]],"b3":[0.563205361366272,-0.5911201238632202,0.2724672257900238]}},"provenance":{"sourceCheckpoint":"tools/training/out/latest_checkpoint.npz","sourceReport":"tools/training/out/latest_report.txt","sourceMixingParameters":"packages/kotlin/src/commonMain/kotlin/io/github/rtarik/paintmixer/MixingParameters.kt","generator":"spectralnn-paint-mixer/tools/training/export_artifact.py"}};
